{
  "dataset_id": "wdbc",
  "dataset_name": "WDBC Breast Cancer",
  "model_id": "mlp_square_linear_score",
  "model_type": "mlp_square_linear_score",
  "task": "binary classification",
  "label_mapping": {
    "0": "negative",
    "1": "positive"
  },
  "random_state": 42,
  "test_size": 0.3,
  "train_samples": 398,
  "test_samples": 171,
  "selected_feature_indices": [
    10,
    13,
    20,
    21,
    23,
    26,
    27,
    28
  ],
  "selected_feature_names": [
    "radius error",
    "area error",
    "worst radius",
    "worst texture",
    "worst area",
    "worst concavity",
    "worst concave points",
    "worst symmetry"
  ],
  "input_dim": 8,
  "standardization": {
    "mean": [
      0.39191708542713555,
      38.21533417085426,
      16.266560301507546,
      25.81630653266333,
      879.6967336683425,
      0.278709540201005,
      0.11448460050251268,
      0.2929376884422112
    ],
    "std": [
      0.23050050776505346,
      34.26891877403041,
      4.8437163221206285,
      6.320366432073852,
      564.7110732005891,
      0.2213831041612083,
      0.06763078182644335,
      0.06505519061391239
    ]
  },
  "raw_model": {
    "hidden_weights": [
      [
        -0.058932857255854336,
        -1.1297263253401926,
        0.6724219760628667,
        -0.0400466711953682,
        -1.4584848239190717,
        -0.5360567064166267,
        -0.40761784396819056,
        0.043848749925876465
      ],
      [
        -1.511515537844398,
        1.4320861113072838,
        0.6045478596636531,
        0.21576681869312436,
        1.0995805393984477,
        0.6860780435141223,
        -0.6881169933394162,
        0.5570215197232605
      ],
      [
        0.4341129878818367,
        1.1799315914239497,
        0.8002750532846938,
        0.4687811055927688,
        0.47700831637995345,
        -0.8777048462291429,
        0.7408743778892615,
        -0.2034407269012666
      ],
      [
        -1.2688512989996639,
        1.2359064789526546,
        -1.8352214969714382,
        0.05432508710270819,
        0.8617782177897277,
        -0.45092000286933287,
        0.7312973004200297,
        0.05832911480607939
      ]
    ],
    "hidden_bias": [
      -1.8536703666411758,
      1.291420081778009,
      -0.7226027627606857,
      -1.5628456656559724
    ],
    "output_weights": [
      -1.69741009664705,
      -1.7407523330035346,
      1.1719042075201527,
      1.8181994369826495
    ],
    "output_bias": 0.6809623326783928
  },
  "scaled_model_for_ckks": {
    "hidden_weights": [
      [
        -0.058932857255854336,
        -1.1297263253401926,
        0.6724219760628667,
        -0.0400466711953682,
        -1.4584848239190717,
        -0.5360567064166267,
        -0.40761784396819056,
        0.043848749925876465
      ],
      [
        -1.511515537844398,
        1.4320861113072838,
        0.6045478596636531,
        0.21576681869312436,
        1.0995805393984477,
        0.6860780435141223,
        -0.6881169933394162,
        0.5570215197232605
      ],
      [
        0.4341129878818367,
        1.1799315914239497,
        0.8002750532846938,
        0.4687811055927688,
        0.47700831637995345,
        -0.8777048462291429,
        0.7408743778892615,
        -0.2034407269012666
      ],
      [
        -1.2688512989996639,
        1.2359064789526546,
        -1.8352214969714382,
        0.05432508710270819,
        0.8617782177897277,
        -0.45092000286933287,
        0.7312973004200297,
        0.05832911480607939
      ]
    ],
    "hidden_bias": [
      -1.8536703666411758,
      1.291420081778009,
      -0.7226027627606857,
      -1.5628456656559724
    ],
    "output_weights": [
      -0.0068534587787937775,
      -0.007028457284362152,
      0.004731677509636259,
      0.007341157518504913
    ],
    "output_bias": 0.002749451818474153
  },
  "max_scaled_logit_target": 1.0,
  "polynomial_score": {
    "formula": "0.5 + 0.197*z",
    "decision_threshold": 0.5
  },
  "metrics": {
    "raw_accuracy": 0.9415204678362573,
    "raw_f1": 0.9537037037037037,
    "raw_auc": 0.9649532710280374,
    "polynomial_decision_match_rate": 1.0,
    "test_scaled_logit_min": -3.3727702444423615,
    "test_scaled_logit_max": 0.09284811283695216,
    "test_scaled_logit_max_abs": 3.3727702444423615
  }
}