{
  "dataset_id": "mnist_pool16",
  "dataset_name": "MNIST pooled 4x4 even-vs-odd classification",
  "model_id": "mlp_square_linear_score",
  "model_type": "mlp_square_linear_score",
  "task": "binary classification",
  "label_mapping": {
    "0": "negative",
    "1": "positive"
  },
  "random_state": 42,
  "test_size": 0.2,
  "train_samples": 2000,
  "test_samples": 500,
  "selected_feature_indices": [
    0,
    1,
    2,
    3,
    4,
    5,
    6,
    7,
    8,
    9,
    10,
    11,
    12,
    13,
    14,
    15
  ],
  "selected_feature_names": [
    "pool4x4_0",
    "pool4x4_1",
    "pool4x4_2",
    "pool4x4_3",
    "pool4x4_4",
    "pool4x4_5",
    "pool4x4_6",
    "pool4x4_7",
    "pool4x4_8",
    "pool4x4_9",
    "pool4x4_10",
    "pool4x4_11",
    "pool4x4_12",
    "pool4x4_13",
    "pool4x4_14",
    "pool4x4_15"
  ],
  "input_dim": 16,
  "standardization": {
    "mean": [
      0.0019246498599439766,
      0.06741900760304115,
      0.12059879951980795,
      0.0107202480992397,
      0.019879591836734687,
      0.3166180872348948,
      0.40093733493397343,
      0.052368467386954845,
      0.03177394957983192,
      0.3236276510604237,
      0.3972924769907963,
      0.04423237294917972,
      0.0099296518607443,
      0.1720819527811127,
      0.13238971588635468,
      0.004974669867947181
    ],
    "std": [
      0.011425964808041615,
      0.09126660402969068,
      0.10342054000068054,
      0.028087627064016643,
      0.05001104643722447,
      0.1757057541914016,
      0.1627179490036664,
      0.08813096450534552,
      0.06511382469665028,
      0.1912122516884747,
      0.16941309782590833,
      0.08657217902238333,
      0.028461062098541937,
      0.12456647700778788,
      0.10937404186872282,
      0.0199160480550205
    ]
  },
  "raw_model": {
    "hidden_weights": [
      [
        0.029571518639695316,
        -0.19893253100876374,
        -0.26892530807743775,
        0.14669096296766662,
        -0.04147047492054759,
        -0.1810599382277128,
        -0.0829751862682584,
        -0.272561833532558,
        0.19899891638709388,
        -0.5056643571801991,
        0.34140239467132744,
        0.08673892191888807,
        -0.06270827130101926,
        -0.023938921958621684,
        -0.2782899359164238,
        -0.015162597271205266
      ],
      [
        -0.10677472516915101,
        0.028771746774475568,
        0.0056819602519414016,
        -0.03913362780718554,
        -0.0103122636879087,
        0.2059208029570174,
        0.28568625650745655,
        -0.054455111313119454,
        -0.22060865164056592,
        -0.08358971924805761,
        -0.3547157354550217,
        -0.26800319491878066,
        0.15558602917439945,
        0.0992093173779481,
        0.38474249991755166,
        -0.13502141880481539
      ],
      [
        -0.07290397583094549,
        -0.6219793628305628,
        -0.539570256813548,
        -0.41044916240511636,
        0.19243457955305182,
        -0.09311702053423547,
        0.30138655695205396,
        0.525010087670982,
        -0.0725743391263253,
        0.2452646161390256,
        -0.03336895100135128,
        -0.3195424607448216,
        -0.10246822436139767,
        -0.05122769461502037,
        -0.2698725566468926,
        0.28930524843286987
      ],
      [
        0.4030850105476157,
        -0.37815647172512334,
        -0.2437039619698517,
        -0.13242919206422013,
        -0.09123201777907386,
        0.38512817800787597,
        -0.4790559343230161,
        0.12135371914830984,
        -0.23943591423970528,
        0.3572776869650773,
        0.277505566128256,
        0.49634473812709645,
        0.20289181809590148,
        0.2823446205146409,
        0.6061497601724709,
        0.13499878403605053
      ]
    ],
    "hidden_bias": [
      -1.6722406082961796,
      -2.1263307437096692,
      0.013359807983937707,
      -0.213516614159376
    ],
    "output_weights": [
      1.0624732551150864,
      0.9511087402916321,
      -0.7923470851327631,
      -0.7597961265727261
    ],
    "output_bias": -5.386816205717204
  },
  "scaled_model_for_ckks": {
    "hidden_weights": [
      [
        0.029571518639695316,
        -0.19893253100876374,
        -0.26892530807743775,
        0.14669096296766662,
        -0.04147047492054759,
        -0.1810599382277128,
        -0.0829751862682584,
        -0.272561833532558,
        0.19899891638709388,
        -0.5056643571801991,
        0.34140239467132744,
        0.08673892191888807,
        -0.06270827130101926,
        -0.023938921958621684,
        -0.2782899359164238,
        -0.015162597271205266
      ],
      [
        -0.10677472516915101,
        0.028771746774475568,
        0.0056819602519414016,
        -0.03913362780718554,
        -0.0103122636879087,
        0.2059208029570174,
        0.28568625650745655,
        -0.054455111313119454,
        -0.22060865164056592,
        -0.08358971924805761,
        -0.3547157354550217,
        -0.26800319491878066,
        0.15558602917439945,
        0.0992093173779481,
        0.38474249991755166,
        -0.13502141880481539
      ],
      [
        -0.07290397583094549,
        -0.6219793628305628,
        -0.539570256813548,
        -0.41044916240511636,
        0.19243457955305182,
        -0.09311702053423547,
        0.30138655695205396,
        0.525010087670982,
        -0.0725743391263253,
        0.2452646161390256,
        -0.03336895100135128,
        -0.3195424607448216,
        -0.10246822436139767,
        -0.05122769461502037,
        -0.2698725566468926,
        0.28930524843286987
      ],
      [
        0.4030850105476157,
        -0.37815647172512334,
        -0.2437039619698517,
        -0.13242919206422013,
        -0.09123201777907386,
        0.38512817800787597,
        -0.4790559343230161,
        0.12135371914830984,
        -0.23943591423970528,
        0.3572776869650773,
        0.277505566128256,
        0.49634473812709645,
        0.20289181809590148,
        0.2823446205146409,
        0.6061497601724709,
        0.13499878403605053
      ]
    ],
    "hidden_bias": [
      -1.6722406082961796,
      -2.1263307437096692,
      0.013359807983937707,
      -0.213516614159376
    ],
    "output_weights": [
      0.03372795715935521,
      0.030192717503246425,
      -0.025152867061866004,
      -0.02411954473537605
    ],
    "output_bias": -0.17100318086789876
  },
  "max_scaled_logit_target": 1.0,
  "polynomial_score": {
    "formula": "0.5 + 0.197*z",
    "decision_threshold": 0.5
  },
  "metrics": {
    "raw_accuracy": 0.896,
    "raw_f1": 0.8934426229508197,
    "raw_auc": 0.9561272980367687,
    "polynomial_decision_match_rate": 1.0,
    "test_scaled_logit_min": -0.7028519216547975,
    "test_scaled_logit_max": 0.6299824406040967,
    "test_scaled_logit_max_abs": 0.7028519216547975
  }
}