{
  "dataset_id": "digits_binary",
  "dataset_name": "Digits even-vs-odd binary classification",
  "model_id": "mlp_square_poly3",
  "model_type": "mlp_square_poly3",
  "task": "binary classification",
  "label_mapping": {
    "0": "negative",
    "1": "positive"
  },
  "random_state": 42,
  "test_size": 0.3,
  "train_samples": 1257,
  "test_samples": 540,
  "selected_feature_indices": [
    3,
    5,
    6,
    18,
    33,
    42,
    43,
    47
  ],
  "selected_feature_names": [
    "pixel_3",
    "pixel_5",
    "pixel_6",
    "pixel_18",
    "pixel_33",
    "pixel_42",
    "pixel_43",
    "pixel_47"
  ],
  "input_dim": 8,
  "standardization": {
    "mean": [
      11.899761336515514,
      5.748607796340493,
      1.2768496420047732,
      9.805887032617344,
      2.367541766109785,
      6.827366746221162,
      7.344470962609387,
      0.027048528241845664
    ],
    "std": [
      4.210961368511564,
      5.657456134641137,
      3.173535195346589,
      5.705350420230847,
      3.5072598537643933,
      6.46116472698385,
      6.421042628987144,
      0.32537885639782105
    ]
  },
  "raw_model": {
    "hidden_weights": [
      [
        -0.3718774064756413,
        -0.2894573040227304,
        -0.0394861965035846,
        0.4246915739107508,
        -0.7096964182070663,
        -0.03785406949748098,
        -1.1023830599568387,
        0.038121583889749795
      ],
      [
        -0.03444567030774332,
        -0.3936195478354007,
        0.5356557066123397,
        0.37338289919559936,
        -0.47713942470033804,
        0.7423523162976862,
        0.7333898885009876,
        -0.018140833644361178
      ],
      [
        -0.19394289902430023,
        0.004874902826437028,
        0.2080524847806483,
        0.005771334783849857,
        0.4003296808555736,
        -0.12451236326160955,
        -0.1670396973687244,
        -0.36437423533538726
      ],
      [
        -0.4715840530960327,
        -0.38724149244846834,
        0.04164966385236111,
        0.3440164034159442,
        0.7122483315046878,
        0.41483501363119435,
        -0.1847285364709209,
        -0.13561819139030906
      ]
    ],
    "hidden_bias": [
      -0.29170243081037517,
      -0.2490904892472425,
      -2.058877545295387,
      1.4383012925310679
    ],
    "output_weights": [
      -0.8135714248755845,
      -0.8222614769271329,
      1.1141486234299738,
      1.0940856647134594
    ],
    "output_bias": -5.763136527983481
  },
  "scaled_model_for_ckks": {
    "hidden_weights": [
      [
        -0.3718774064756413,
        -0.2894573040227304,
        -0.0394861965035846,
        0.4246915739107508,
        -0.7096964182070663,
        -0.03785406949748098,
        -1.1023830599568387,
        0.038121583889749795
      ],
      [
        -0.03444567030774332,
        -0.3936195478354007,
        0.5356557066123397,
        0.37338289919559936,
        -0.47713942470033804,
        0.7423523162976862,
        0.7333898885009876,
        -0.018140833644361178
      ],
      [
        -0.19394289902430023,
        0.004874902826437028,
        0.2080524847806483,
        0.005771334783849857,
        0.4003296808555736,
        -0.12451236326160955,
        -0.1670396973687244,
        -0.36437423533538726
      ],
      [
        -0.4715840530960327,
        -0.38724149244846834,
        0.04164966385236111,
        0.3440164034159442,
        0.7122483315046878,
        0.41483501363119435,
        -0.1847285364709209,
        -0.13561819139030906
      ]
    ],
    "hidden_bias": [
      -0.29170243081037517,
      -0.2490904892472425,
      -2.058877545295387,
      1.4383012925310679
    ],
    "output_weights": [
      -0.008332764824059188,
      -0.008421770113380233,
      0.011411337928333704,
      0.011205849004377103
    ],
    "output_bias": -0.05902722227980814
  },
  "max_scaled_logit_target": 1.0,
  "polynomial_score": {
    "formula": "0.5 + 0.197*z - 0.004*z^3",
    "decision_threshold": 0.5
  },
  "metrics": {
    "raw_accuracy": 0.912962962962963,
    "raw_f1": 0.9128014842300557,
    "raw_auc": 0.9671861281826163,
    "polynomial_decision_match_rate": 1.0,
    "test_scaled_logit_min": -0.14431625963666814,
    "test_scaled_logit_max": 0.4192655588311329,
    "test_scaled_logit_max_abs": 0.4192655588311329
  }
}